7.208426594734191895e-01 1.433387875556945801e+00 -2.026714235544204712e-01 3.448435664176940918e-01 8.586253523826599121e-01
2.897450327873229980e-01 5.839209556579589844e-01 -8.033201843500137329e-02 -1.728059053421020508e-01 -1.126724600791931152e+00
7.511258721351623535e-01 3.757686614990234375e-01 -5.526319518685340881e-02 4.067868590354919434e-01 -9.422534704208374023e-01
-1.072524189949035645e+00 1.634519360959529877e-02 -3.530494403094053268e-03 -8.646014332771301270e-01 -4.921436309814453125e-02
-5.286117792129516602e-01 -5.810365676879882812e-01 8.513391017913818359e-02 -6.136801838874816895e-01 2.316992580890655518e-01
-2.331547904759645462e-03 1.979445815086364746e+00 -2.825812697410583496e-01 7.726561427116394043e-01 -1.451818466186523438e+00
3.888847231864929199e-01 6.593589787371456623e-04 3.330951184034347534e-02 3.056378662586212158e-01 3.681986629962921143e-01
-2.153122872114181519e-01 1.054360032081604004e+00 -1.482927650213241577e-01 -1.783476173877716064e-01 4.066328108310699463e-01
-9.756295680999755859e-01 1.030015945434570312e+00 -1.431953608989715576e-01 -4.311026930809020996e-01 -1.857968091964721680e+00
-1.137130141258239746e+00 6.485426425933837891e-01 1.178219467401504517e-01 -1.000792741775512695e+00 -4.983876943588256836e-01
