2.802286148071289062e+00 1.781029224395751953e+00 2.322629928588867188e+00 -8.563970327377319336e-01 -5.229105949401855469e-01 1.794091105461120605e+00 4.741677045822143555e-01 1.810672760009765625e+00 1.462757289409637451e-01 1.339504420757293701e-01
-3.783527389168739319e-02 1.041496634483337402e+00 -1.324485093355178833e-01 1.948139071464538574e-02 -5.268189311027526855e-01 -1.524441003799438477e+00 -2.375437319278717041e-01 -3.227149724960327148e+00 -5.551157593727111816e-01 -4.293068870902061462e-02
1.653717994689941406e+00 4.340079128742218018e-01 -7.316368818283081055e-02 6.522125601768493652e-01 1.465743333101272583e-01 2.098927974700927734e+00 -1.517091244459152222e-01 2.252187252044677734e+00 1.767768979072570801e+00 1.474653244018554688e+00
-9.138906002044677734e-01 7.851134985685348511e-02 -1.036865949630737305e+00 2.172014713287353516e+00 2.010451704263687134e-01 -4.973535239696502686e-01 -9.332191944122314453e-01 1.230709671974182129e+00 1.390994429588317871e+00 -1.485912799835205078e+00
-1.462896019220352173e-01 6.335035562515258789e-01 -4.385864436626434326e-01 3.345953464508056641e+00 1.869440376758575439e-01 -3.937876522541046143e-01 -1.098922491073608398e+00 1.884071528911590576e-01 6.310818791389465332e-01 -1.487789273262023926e+00
-2.553884983062744141e-01 6.246046721935272217e-02 4.023113548755645752e-01 4.620000720024108887e-02 4.210592061281204224e-02 1.688285358250141144e-02 -1.776927590370178223e+00 6.181493028998374939e-02 1.007042527198791504e-01 -2.987076342105865479e-02
-4.095146805047988892e-02 4.664578735828399658e-01 -7.498260140419006348e-01 -4.036397933959960938e-01 -4.718213900923728943e-02 2.209132071584463120e-03 1.137480605393648148e-02 -6.704726256430149078e-04 4.730957373976707458e-02 -4.109876230359077454e-02
-2.585049271583557129e-01 -2.542836964130401611e-01 9.662778973579406738e-01 -7.428146898746490479e-02 8.012050390243530273e-02 2.723302245140075684e-01 -6.499475240707397461e-01 -2.273548021912574768e-02 -3.965100944042205811e-01 -1.688455700874328613e+00
-1.795050203800201416e-01 1.851654648780822754e-01 1.376230865716934204e-01 -7.030579447746276855e-01 1.069042831659317017e-01 1.850627213716506958e-01 -8.742693066596984863e-01 5.973304808139801025e-02 -2.560456693172454834e-01 -1.490372180938720703e+00
1.075046300888061523e+00 -6.153607964515686035e-01 1.389867514371871948e-01 4.477226734161376953e-02 4.533021152019500732e-02 4.837651923298835754e-02 -9.124312996864318848e-01 -1.293542146682739258e+00 4.368848726153373718e-02 -1.486795902252197266e+00
1.736006289720535278e-01 -5.245811864733695984e-02 3.653706312179565430e-01 -4.885838031768798828e-01 -8.645131252706050873e-03 4.482682421803474426e-02 -2.966838777065277100e-01 -5.978890061378479004e-01 1.729845106601715088e-01 -1.486636161804199219e+00
5.909046158194541931e-02 -4.844891130924224854e-01 1.519138574600219727e+00 -6.769322156906127930e-01 1.005149602890014648e+00 1.598428338766098022e-01 -8.982062339782714844e-01 -5.858940482139587402e-01 4.928307831287384033e-01 2.514940500259399414e-01
-1.424771994352340698e-01 2.041148543357849121e-01 -1.366927325725555420e-01 1.214978564530611038e-02 -1.685201972723007202e-01 1.073532504960894585e-03 -2.158930748701095581e-01 6.232050806283950806e-02 -2.787473611533641815e-02 -1.629894495010375977e+00
-1.065920740365982056e-01 -2.850105464458465576e-01 8.127546310424804688e-01 5.019313655793666840e-03 5.188638567924499512e-01 3.728159889578819275e-02 6.301350593566894531e-01 1.827586791478097439e-03 2.319119423627853394e-01 -2.049226760864257812e+00
